digraph Tree {
node [shape=box, style="filled, rounded", color="black", fontname=helvetica] ;
edge [fontname=helvetica] ;
0 [label="petal width (cm) <= 0.7\ngini = 0.67\nsamples = 89\nvalue = [49, 50, 51]\nclass = virginica", fillcolor="#fefdff"] ;
1 [label="gini = 0.0\nsamples = 27\nvalue = [49, 0, 0]\nclass = setosa", fillcolor="#e58139"] ;
0 -> 1 [labeldistance=2.5, labelangle=45, headlabel="True"] ;
2 [label="petal width (cm) <= 1.55\ngini = 0.5\nsamples = 62\nvalue = [0, 50, 51]\nclass = virginica", fillcolor="#fdfbfe"] ;
0 -> 2 [labeldistance=2.5, labelangle=-45, headlabel="False"] ;
3 [label="gini = 0.0\nsamples = 28\nvalue = [0, 47, 0]\nclass = versicolor", fillcolor="#39e581"] ;
2 -> 3 ;
4 [label="petal length (cm) <= 5.15\ngini = 0.1\nsamples = 34\nvalue = [0, 3, 51]\nclass = virginica", fillcolor="#8845e7"] ;
2 -> 4 ;
5 [label="petal width (cm) <= 1.65\ngini = 0.3\nsamples = 12\nvalue = [0, 3, 13]\nclass = virginica", fillcolor="#9e67eb"] ;
4 -> 5 ;
6 [label="gini = 0.0\nsamples = 2\nvalue = [0, 2, 0]\nclass = versicolor", fillcolor="#39e581"] ;
5 -> 6 ;
7 [label="sepal length (cm) <= 6.5\ngini = 0.13\nsamples = 10\nvalue = [0, 1, 13]\nclass = virginica", fillcolor="#8b48e7"] ;
5 -> 7 ;
8 [label="gini = 0.0\nsamples = 8\nvalue = [0, 0, 11]\nclass = virginica", fillcolor="#8139e5"] ;
7 -> 8 ;
9 [label="sepal length (cm) <= 6.8\ngini = 0.44\nsamples = 2\nvalue = [0, 1, 2]\nclass = virginica", fillcolor="#c09cf2"] ;
7 -> 9 ;
10 [label="gini = 0.0\nsamples = 1\nvalue = [0, 1, 0]\nclass = versicolor", fillcolor="#39e581"] ;
9 -> 10 ;
11 [label="gini = 0.0\nsamples = 1\nvalue = [0, 0, 2]\nclass = virginica", fillcolor="#8139e5"] ;
9 -> 11 ;
12 [label="gini = 0.0\nsamples = 22\nvalue = [0, 0, 38]\nclass = virginica", fillcolor="#8139e5"] ;
4 -> 12 ;
}