digraph Tree {
node [shape=box, style="filled, rounded", color="black", fontname=helvetica] ;
edge [fontname=helvetica] ;
0 [label="sepal length (cm) <= 6.15\ngini = 0.66\nsamples = 92\nvalue = [46, 44, 60]\nclass = virginica", fillcolor="#eee4fc"] ;
1 [label="petal length (cm) <= 2.45\ngini = 0.58\nsamples = 56\nvalue = [46, 39, 9]\nclass = setosa", fillcolor="#fcefe6"] ;
0 -> 1 [labeldistance=2.5, labelangle=45, headlabel="True"] ;
2 [label="gini = 0.0\nsamples = 27\nvalue = [46, 0, 0]\nclass = setosa", fillcolor="#e58139"] ;
1 -> 2 ;
3 [label="petal length (cm) <= 4.8\ngini = 0.3\nsamples = 29\nvalue = [0, 39, 9]\nclass = versicolor", fillcolor="#67eb9e"] ;
1 -> 3 ;
4 [label="petal width (cm) <= 1.65\ngini = 0.05\nsamples = 22\nvalue = [0, 37, 1]\nclass = versicolor", fillcolor="#3ee684"] ;
3 -> 4 ;
5 [label="gini = 0.0\nsamples = 21\nvalue = [0, 37, 0]\nclass = versicolor", fillcolor="#39e581"] ;
4 -> 5 ;
6 [label="gini = 0.0\nsamples = 1\nvalue = [0, 0, 1]\nclass = virginica", fillcolor="#8139e5"] ;
4 -> 6 ;
7 [label="sepal width (cm) <= 2.75\ngini = 0.32\nsamples = 7\nvalue = [0, 2, 8]\nclass = virginica", fillcolor="#a06aec"] ;
3 -> 7 ;
8 [label="petal width (cm) <= 1.75\ngini = 0.44\nsamples = 4\nvalue = [0, 2, 4]\nclass = virginica", fillcolor="#c09cf2"] ;
7 -> 8 ;
9 [label="gini = 0.0\nsamples = 1\nvalue = [0, 2, 0]\nclass = versicolor", fillcolor="#39e581"] ;
8 -> 9 ;
10 [label="gini = 0.0\nsamples = 3\nvalue = [0, 0, 4]\nclass = virginica", fillcolor="#8139e5"] ;
8 -> 10 ;
11 [label="gini = 0.0\nsamples = 3\nvalue = [0, 0, 4]\nclass = virginica", fillcolor="#8139e5"] ;
7 -> 11 ;
12 [label="sepal length (cm) <= 6.35\ngini = 0.16\nsamples = 36\nvalue = [0, 5, 51]\nclass = virginica", fillcolor="#8d4ce8"] ;
0 -> 12 [labeldistance=2.5, labelangle=-45, headlabel="False"] ;
13 [label="petal width (cm) <= 1.65\ngini = 0.38\nsamples = 7\nvalue = [0, 2, 6]\nclass = virginica", fillcolor="#ab7bee"] ;
12 -> 13 ;
14 [label="gini = 0.0\nsamples = 2\nvalue = [0, 2, 0]\nclass = versicolor", fillcolor="#39e581"] ;
13 -> 14 ;
15 [label="gini = 0.0\nsamples = 5\nvalue = [0, 0, 6]\nclass = virginica", fillcolor="#8139e5"] ;
13 -> 15 ;
16 [label="petal width (cm) <= 1.55\ngini = 0.12\nsamples = 29\nvalue = [0, 3, 45]\nclass = virginica", fillcolor="#8946e7"] ;
12 -> 16 ;
17 [label="gini = 0.0\nsamples = 3\nvalue = [0, 3, 0]\nclass = versicolor", fillcolor="#39e581"] ;
16 -> 17 ;
18 [label="gini = 0.0\nsamples = 26\nvalue = [0, 0, 45]\nclass = virginica", fillcolor="#8139e5"] ;
16 -> 18 ;
}